svm_type c_svc
kernel_type rbf
gamma 0.00012207
nr_class 4
total_sv 51
rho 0.271385 0.039417 -0.223855 -0.805093 -0.999121 0.162703
label 1 0 3 2
nr_sv 11 14 15 11
SV
512 512 512 1:0.0639235 2:0.313388 3:-0.528498 4:-0.660443 5:0.466027 6:0.347981 7:-0.55536 8:0.00395123 9:0.20123 10:0.0549489 11:-0.190897 12:0.624394 13:-0.266243 14:-0.060811 15:-0.107955 16:-0.542614 17:-0.5 18:0.533876 
512 0 172.146900275593 1:0.253561 2:1 3:0.297037 4:0.441878 5:0.978371 6:0.426114 7:-0.0950177 8:0.51715 9:0.0705347 10:1 11:-0.0529121 12:1 13:-0.160645 14:-0.258637 15:-0.612122 16:0.0238357 17:-1 18:0.532258 
512 235.3877716384771 510.0119806261625 1:1 2:0.674196 3:1 4:-0.39857 5:0.870574 6:0.773688 7:0.383472 8:0.369576 9:0.328114 10:0.708921 11:-0.85539 12:-0.090458 13:-0.0395943 14:-0.026789 15:-0.076647 16:-0.134644 17:-1 18:-0.118412 
512 512 512 1:-0.586323 2:0.424981 3:-0.86207 4:-0.46848 5:0.624007 6:0.0274215 7:0.105286 8:-0.472085 9:0.0365929 10:0.107099 11:-0.820251 12:-0.500745 13:0.0693476 14:-0.148771 15:0.579749 16:0.353199 17:-0.5 18:-0.0111799 
512 512 512 1:-0.193416 2:0.121167 3:0.0621567 4:-0.817083 5:0.322864 6:-0.332577 7:-0.0795593 8:-0.490367 9:0.587479 10:0.643165 11:-0.402303 12:0.00940035 13:-0.0266664 14:0.0322135 15:-0.146456 16:-0.765428 18:-0.315668 
339.2289729337771 512 512 1:-0.304847 2:-0.379656 3:-0.969874 4:-0.397976 5:0.263621 6:-0.460367 7:0.525297 8:-0.29438 9:0.685182 10:-0.146836 11:0.505314 12:-0.450881 13:-0.54508 14:-1 15:0.920476 16:0.677484 17:-0.5 18:-0.209157 
512 512 512 1:0.699289 2:0.0999252 3:-0.281024 4:-0.681588 5:0.47324 6:-0.200399 7:0.198457 8:0.127134 9:0.0454111 10:0.0302616 11:-0.378142 12:0.0715224 13:-0.231538 14:-0.120765 15:0.43747 16:-0.428681 17:-0.5 18:0.42167 
512 512 512 1:0.0471869 2:0.231414 3:-0.200339 4:-0.441087 5:0.524975 6:0.056396 7:0.0302316 8:0.390499 9:-0.0977357 10:0.275731 11:0.271812 12:0.238313 13:-0.255445 14:-0.134321 15:-0.197232 16:0.108326 17:-0.5 18:0.615109 
512 512 512 1:-0.0553211 2:-0.877038 3:-0.617884 4:-0.922019 5:-0.0331284 6:0.158605 7:-0.719043 8:-0.755432 9:0.615328 10:-0.405209 11:0.504086 12:0.100753 13:-0.393802 14:-0.412465 15:0.262036 16:0.254604 17:-0.5 18:-0.109412 
512 512 512 1:0.317269 2:0.523411 3:-0.55791 4:-0.491887 5:0.797552 6:0.246061 7:0.391852 8:-0.207124 9:0.465056 10:-0.23117 11:-0.642061 12:-0.155419 13:0.314626 14:0.0328986 15:0.719906 16:-0.0764477 17:-0.5 18:0.110658 
512 512 512 1:0.392296 2:0.532386 3:-0.449832 4:-0.638492 5:0.760612 6:0.0664176 7:-0.508946 8:-0.335808 9:0.344657 10:0.0532707 11:-0.00306331 12:-0.46694 13:0.534969 14:0.0151657 15:0.414667 16:0.535513 18:0.342521 
-59.40370926787676 0 0 1:-0.159794 2:0.314435 3:-0.0708124 4:-0.469144 5:0.53869 6:0.152957 7:-0.242694 8:0.617689 9:-0.0484007 10:0.543403 11:1 12:-0.00261441 13:-0.0116549 14:0.363323 15:-1 16:-0.466145 17:-0.5 18:1 
-63.83831097795004 0 0 1:-0.116717 2:0.462977 3:-0.112474 4:-0.32784 5:0.643173 6:0.747226 7:0.50198 8:0.130344 9:-0.505016 10:0.312631 11:0.513548 12:0.703424 13:-0.463572 14:-0.136481 15:-0.514355 16:-0.752311 17:-0.5 18:0.534235 
-512 512 401.4854116974662 1:0.694076 2:0.642184 3:-0.329793 4:-0.987208 5:0.891027 6:0.39418 7:-0.390792 8:-0.208875 9:0.0694903 10:-0.336208 11:-0.517312 12:0.168667 13:0.438744 14:0.370108 15:0.810765 16:0.0826896 17:-1 18:-0.020038 
-338.0963634220342 0 391.1503250217543 1:0.440074 2:0.261182 3:0.0548719 4:-0.327628 5:0.442381 6:1 7:-0.135659 8:0.49251 9:0.230345 10:0.123048 11:-0.896316 12:-0.196796 13:-0.0236599 14:1 15:-0.37997 16:0.202264 17:-0.5 18:0.658378 
-385.046589118068 512 0 1:0.0471995 2:0.951384 3:-0.248638 4:1 5:0.935059 6:0.696619 7:-0.255602 8:0.365616 9:0.126718 10:0.270226 11:0.36984 12:-0.466465 13:-1 14:0.0814581 15:0.0181173 16:0.102633 17:-0.5 18:0.0905296 
-512 393.0281989342724 8.47209759426279 1:0.57771 2:0.604936 3:0.014114 4:-0.441977 5:0.85373 6:0.403568 7:-0.333875 8:0.04084 9:-0.219013 10:0.0576509 11:-0.393401 12:-0.353888 13:0.287378 14:0.388264 15:0.436694 16:-0.096172 17:-0.5 18:0.318162 
-512 0 512 1:0.527548 2:0.402094 3:0.0142216 4:0.945157 5:0.726289 6:0.428715 7:-0.397872 8:-0.12073 9:-0.250192 10:0.427049 11:0.073496 12:0.000900153 13:0.383277 14:0.129693 15:-0.0395907 16:0.00876468 17:-1 18:0.0304472 
-512 449.2614922824332 432.8878657718571 1:-0.238081 2:0.567838 3:-0.408683 4:-0.328221 5:0.551244 6:0.426412 7:0.242643 8:1 9:0.471642 10:0.38757 11:0.0191268 12:0.298783 13:0.204125 14:-0.472664 15:-0.290645 16:0.157638 17:-0.5 18:0.92731 
-512 512 512 1:0.399762 2:0.577711 3:-0.634281 4:-0.795344 5:0.906555 6:0.255193 7:0.553282 8:-0.258821 9:-0.291191 10:-0.0169028 11:0.130496 12:-0.0855672 13:0.227617 14:-0.225035 15:0.28787 16:-0.346407 17:-0.5 18:-0.116085 
-512 512 512 1:0.147117 2:0.378609 3:-0.666519 4:-0.903319 5:0.665972 6:0.768056 7:0.549107 8:0.417482 9:0.994455 10:0.194963 11:0.315821 12:0.40754 13:-0.1622 14:0.322717 15:0.682614 16:-0.918277 18:0.243322 
-4.844000147848193 512 512 1:-0.00952391 2:-0.560808 3:-0.880148 4:-0.443433 5:0.214744 6:0.785561 7:0.309879 8:-0.334195 9:-1 10:-0.278413 11:0.729541 12:0.297901 13:1 14:0.263744 15:0.309199 16:-0.315318 18:-0.382517 
-512 512 512 1:0.217251 2:0.516978 3:-0.160358 4:-0.75188 5:0.671393 6:0.673764 7:-0.458755 8:-0.354826 9:0.27676 10:0.295051 11:-0.0591064 12:0.352414 13:0.129987 14:-0.123699 15:-0.117873 16:0.420498 17:-0.5 18:0.41348 
-512 0 483.0513995724089 1:0.119723 2:0.187135 3:-0.235738 4:-0.79451 5:0.448388 6:0.475879 7:-0.723687 8:-0.273691 9:0.0647517 10:0.158498 11:-0.132193 12:0.506797 13:-0.392223 14:-0.0838261 15:0.000328866 16:-0.695083 17:-0.5 18:0.528476 
-512 512 401.6183045177412 1:-0.344286 2:-0.0323111 3:-0.789288 4:-0.411899 5:0.367373 6:-0.0333173 7:-0.846678 8:0.0290922 9:-0.28462 10:-1 11:0.175374 12:0.826294 13:0.140374 14:-0.0864969 15:0.394233 16:-0.298004 17:-0.5 18:0.0204571 
-0 -239.1202698879911 512 1:-0.28342 2:-0.356769 3:-0.938674 4:0.096667 5:0.248694 6:0.168744 7:-0.194531 8:-0.408669 9:0.241489 10:-0.234572 11:-0.932527 12:-0.6606 13:0.900051 14:0.545789 15:0.601059 16:0.207721 17:-0.5 18:-0.286313 
-512 -0 239.4299871480093 1:-0.0897444 2:0.551533 3:-0.842549 4:-0.959631 5:0.7784 6:0.0725058 7:-0.261702 8:-0.615303 9:0.424299 10:-0.0532123 11:-0.906501 12:-0.692472 13:-0.726874 14:-0.657639 15:0.561213 16:-0.0963844 18:-0.183293 
-512 -512 512 1:-0.407692 2:0.445176 3:-0.816524 4:-0.950416 5:0.553163 6:0.327616 7:-0.0704429 8:0.0321084 9:0.0663264 10:0.0257817 11:0.125105 12:-0.151352 13:-0.0443289 14:0.144942 15:0.188812 16:0.0980098 17:-0.5 18:0.262433 
-512 -512 512 1:-0.220336 2:0.599402 3:-0.89371 4:0.208981 5:0.760127 6:0.025188 7:-0.0409756 8:0.0506081 9:0.098506 10:0.024136 11:-0.351527 12:-0.2413 13:-0.222679 14:-0.212291 15:0.541046 16:0.197151 17:-0.5 18:0.12236 
-512 -512 512 1:0.00404141 2:-0.158414 3:-0.708713 4:-0.606236 5:0.173575 6:0.552396 7:0.603919 8:0.158564 9:1 10:-0.164034 11:-0.464016 12:-0.189951 13:0.110868 14:-0.108714 15:0.287197 16:-0.392135 17:-0.5 18:-0.345394 
-512 -512 94.8925972122679 1:-0.361636 2:-0.302019 3:-0.88524 4:-0.752233 5:0.235259 6:-0.327268 7:-0.224907 8:-0.133095 9:-0.013003 10:-0.189216 11:0.274301 12:-1 13:0.495665 14:-0.368288 15:0.411486 16:-0.375843 17:-0.5 18:0.215473 
-512 -512 512 1:-0.254643 2:0.58534 3:-0.816738 4:-0.469441 5:0.742825 6:-0.0641807 7:-0.271037 8:-0.506187 9:0.795098 10:-0.209613 11:-0.132872 12:-0.127775 13:-0.0572524 14:-0.316091 15:0.391092 16:0.295233 17:-0.5 18:0.0993955 
-478.2142553863013 -512 0 1:-0.275981 2:0.0427823 3:-0.929435 4:-0.498177 5:0.499598 6:0.187978 7:0.171654 8:-0.27755 9:0.150698 10:-0.337703 11:-0.600523 12:-0.517051 13:0.0411921 14:-0.34795 15:0.815954 16:0.279728 17:-0.5 18:-0.0589976 
-0 -91.16942132871445 512 1:-0.711841 2:-0.338818 3:-0.986685 4:-1 5:0.216882 6:-0.122888 7:-0.304339 8:-0.72317 9:-0.0348682 10:-0.153889 11:0.0781577 12:0.0571844 13:0.0703006 14:-0.573713 15:0.337634 16:-1 17:1 18:-1 
-274.8752626722559 -512 0 1:-0.455261 2:0.536874 3:-0.85956 4:-0.292842 5:0.738953 6:0.123178 7:0.189435 8:-0.485011 9:0.491641 10:-0.0273212 11:-0.265615 12:-0.321604 13:-0.0538809 14:-0.541411 15:0.317214 16:-0.503776 18:-0.432194 
-0 -0 423.5819544007061 1:-0.451245 2:0.244129 3:-0.974787 4:-0.894584 5:0.541746 6:0.335069 7:0.224697 8:-0.34329 9:0.200823 10:-0.0777142 11:-0.518871 12:-0.435791 13:-0.130416 14:-0.648129 15:0.731574 16:0.492215 17:-0.5 18:-0.343708 
-141.9833218442505 -0 512 1:-0.697461 2:-0.754076 3:-0.864392 4:-0.0191384 5:-0.0526698 6:-0.299674 7:0.905063 8:0.0459527 9:0.445277 10:0.0660844 11:0.103731 12:-0.0857008 13:0.548821 14:-0.281723 15:0.383623 16:-0.147634 17:-0.5 18:-0.657467 
-512 -512 474.5485821979121 1:0.189016 2:0.559611 3:-0.653789 4:-0.435574 5:0.826815 6:-0.219525 7:0.105609 8:-0.550598 9:0.440142 10:-0.463375 11:0.239529 12:-0.0627025 13:0.149154 14:-0.25069 15:0.681512 16:0.578883 17:-0.5 18:-0.833893 
-0 -0 303.5468790411046 1:-0.915929 2:-0.334331 3:-0.916485 4:-0.330115 5:0.00891525 6:-0.331108 7:0.294861 8:-0.379859 9:0.173569 10:0.158581 11:-1 12:-0.411542 13:0.612507 14:-0.347851 15:0.830296 16:0.550724 17:-0.5 18:-0.107493 
-364.3149317356693 -0 512 1:-0.31868 2:-0.432162 3:-0.83379 4:0.0923842 5:0.114718 6:-0.732643 7:-0.519516 8:-0.840203 9:0.196379 10:-0.206492 11:-0.0364591 12:-0.177414 13:0.707734 14:-0.344952 15:0.539913 16:0.151542 17:-0.5 18:-0.344068 
-512 -512 -512 1:0.606801 2:0.180404 3:0.2564 4:-0.398386 5:0.472074 6:0.117992 7:-0.233729 8:-0.495925 9:0.443673 10:0.234216 11:-0.344511 12:0.0252839 13:0.474617 14:0.0197007 15:-0.257518 16:0.0764784 17:-0.5 18:0.325311 
-512 -512 -512 1:-0.178388 2:-0.0113687 3:-0.680323 4:0.102095 5:0.0936745 6:0.110931 7:0.428312 8:-0.127406 9:-0.209412 10:0.538177 11:-0.0135248 12:0.30431 13:-0.210987 14:-0.429271 15:0.166563 16:0.0330651 17:-1 18:-0.193989 
-512 -70.66540417549048 -512 1:-0.822173 2:-0.692446 3:-0.761999 4:-0.278156 5:-0.384534 6:-1 7:-0.475127 8:-0.89746 9:0.651698 10:-0.107802 11:-0.981603 12:-0.00783209 13:0.149012 14:-0.605065 15:1 16:0.552202 17:-1 18:-0.803467 
-512 -512 -512 1:-0.0690967 2:-0.00718025 3:-0.657097 4:-0.964211 5:0.351734 6:0.0743164 7:-0.0777782 8:-0.265054 9:-0.109511 10:0.0498194 11:0.158113 12:0.236543 13:0.438849 14:0.156952 15:0.247179 16:0.0924231 17:-0.5 18:-0.0415327 
-512 -512 -512 1:0.34132 2:0.456545 3:-0.157512 4:-0.865706 5:0.646188 6:0.410312 7:0.360782 8:0.417552 9:-0.757596 10:0.219089 11:-0.272431 12:0.482342 13:-0.0870949 14:-0.150008 15:-0.0337215 16:-0.54987 17:-0.5 18:0.468411 
-512 -512 -512 1:-0.0493398 2:0.086911 3:-0.755101 4:0.0229688 5:0.50797 6:0.636205 7:1 8:0.312275 9:0.688892 10:0.11698 11:0.237695 12:-0.0908138 13:0.0126946 14:0.119712 15:0.510437 16:0.461976 17:-0.5 18:-0.192302 
-170.1588809017555 -0 -512 1:-1 2:-1 3:-0.225848 4:-0.999392 5:-1 6:-0.456836 7:-1 8:-1 9:0.55317 10:0.522635 11:-0.692202 12:0.0875924 13:0.274064 14:-0.0885534 15:-0.539009 16:1 18:-0.347638 
-512 -512 -512 1:0.355419 2:-0.705909 3:-0.341904 4:-0.0736558 5:0.0604982 6:0.711961 7:-0.48368 8:-0.65455 9:-0.0672411 10:0.19451 11:-0.534476 12:-0.222708 13:0.0750807 14:-0.13311 15:0.0380746 16:-0.0176337 17:-0.5 18:-0.149179 
-512 -512 -512 1:0.00664491 2:0.371429 3:-0.760522 4:-0.902004 5:0.685368 6:0.276009 7:0.384337 8:-0.3294 9:-0.258795 10:0.165865 11:-0.0962655 12:0.0479463 13:0.151601 14:0.123463 15:0.185852 16:-0.140965 18:-0.193515 
-512 -512 -512 1:0.2689 2:-0.0854151 3:-0.683586 4:-0.922033 5:0.324527 6:0.419318 7:-0.258876 8:-0.156718 9:0.364358 10:-0.218531 11:0.257681 12:0.221892 13:0.175756 14:-0.0826877 15:0.0915652 16:-0.188931 17:-0.5 18:0.156503 
-512 -512 -512 1:-0.00429874 2:0.22558 3:-0.405431 4:-0.629177 5:0.515257 6:0.30064 7:0.252455 8:-0.563945 9:0.481317 10:0.214954 11:-0.873762 12:-0.109674 13:0.276632 14:-0.0518705 15:0.244484 16:0.159294 17:1 18:-0.579999 
